<?xml version="1.0"?>
<opencv_storage>
<cascade>
  <stageType>BOOST</stageType>
  <featureType>HAAR</featureType>
  <height>24</height>
  <width>24</width>
  <stageParams>
    <boostType>GAB</boostType>
    <minHitRate>9.9500000476837158e-01</minHitRate>
    <maxFalseAlarm>5.0000000000000000e-01</maxFalseAlarm>
    <weightTrimRate>9.4999999999999996e-01</weightTrimRate>
    <maxDepth>1</maxDepth>
    <maxWeakCount>100</maxWeakCount></stageParams>
  <featureParams>
    <maxCatCount>0</maxCatCount>
    <featSize>1</featSize>
    <mode>BASIC</mode></featureParams>
  <stageNum>25</stageNum>
  <stages>
    <!-- stage 0 -->
    <_>
      <maxWeakCount>4</maxWeakCount>
      <stageThreshold>-1.2155185937881470e+00</stageThreshold>
      <weakClassifiers>
        <_>
          <internalNodes>
            0 -1 150 -1.0116852354258299e-03</internalNodes>
          <leafValues>
            8.5815602540969849e-01 -8.4300339221954346e-01</leafValues></_>
        <_>
          <internalNodes>
            0 -1 42 -2.0961114205420017e-03</internalNodes>
          <leafValues>
            8.5094344615936279e-01 -6.7077779769897461e-01</leafValues></_>
        <_>
          <internalNodes>
            0 -1 137 -8.0526038073003292e-04</internalNodes>
          <leafValues>
            8.4325629472732544e-01 -6.2260705232620239e-01</leafValues></_>
        <_>
          <internalNodes>
            0 -1 149 -4.9603049410507083e-04</internalNodes>
          <leafValues>
            9.2086970806121826e-01 -5.6894189119338989e-01</leafValues></_></weakClassifiers></_>
    <!-- stage 1 -->
    <_>
      <maxWeakCount>4</maxWeakCount>
      <stageThreshold>-9.5657080411911011e-01</stageThreshold>
      <weakClassifiers>
        <_>
          <internalNodes>
            0 -1 66 4.4646821916103363e-03</internalNodes>
          <leafValues>
            -6.7371600866317749e-01 9.4174754619598389e-01</leafValues></_>
        <_>
          <internalNodes>
            0 -1 112 8.7237879633903503e-03</internalNodes>
          <leafValues>
            -6.1569285392761230e-01 8.2556235790252686e-01</leafValues></_>
        <_>
          <internalNodes>
            0 -1 41 1.5589753165841103e-03</internalNodes>
          <leafValues>
            -4.8435857892036438e-01 7.7545440196990967e-01</leafValues></_>
        <_>
          <internalNodes>
            0 -1 145 1.0116300545632839e-03</internalNodes>
          <leafValues>
            -4.4261637330055237e-01 8.4888088703155518e-01</leafValues></_></weakClassifiers></_>
    <!-- stage 2 -->
    <_>
      <maxWeakCount>3</maxWeakCount>
      <stageThreshold>-7.7543401718139648e-01</stageThreshold>
      <weakClassifiers>
        <_>
          <internalNodes>
            0 -1 156 -4.2104031890630722e-03</internalNodes>
          <leafValues>
            7.6923078298568726e-01 -7.4342107772827148e-01</leafValues></_>
        <_>
          <internalNodes>
            0 -1 30 1.3328967615962029e-02</internalNodes>
          <leafValues>
            -6.3804185390472412e-01 7.2711825370788574e-01</leafValues></_>
        <_>
          <internalNodes>
            0 -1 61 1.9583381712436676e-02</internalNodes>
          <leafValues>
            -4.9672651290893555e-01 6.0602885484695435e-01</leafValues></_></weakClassifiers></_>
    <!-- stage 3 -->
    <_>
      <maxWeakCount>5</maxWeakCount>
      <stageThreshold>-1.6754349470138550e+00</stageThreshold>
      <weakClassifiers>
        <_>
          <internalNodes>
            0 -1 140 -6.7674354650080204e-03</internalNodes>
          <leafValues>
            5.0318473577499390e-01 -7.4007219076156616e-01</leafValues></_>
        <_>
          <internalNodes>
            0 -1 15 -9.6085565164685249e-03</internalNodes>
          <leafValues>
            5.5647999048233032e-01 -5.5173528194427490e-01</leafValues></_>
        <_>
          <internalNodes>
            0 -1 158 -7.6084572356194258e-05</internalNodes>
          <leafValues>
            5.2993136644363403e-01 -6.0653573274612427e-01</leafValues></_>
        <_>
          <internalNodes>
            0 -1 35 2.1780545648653060e-04</internalNodes>
          <leafValues>
            -4.3918585777282715e-01 6.5704441070556641e-01</leafValues></_>
        <_>
          <internalNodes>
            0 -1 87 7.3529132350813597e-05</internalNodes>
          <leafValues>
            -4.7196105122566223e-01 6.6209417581558228e-01</leafValues></_></weakClassifiers></_>
    <!-- stage 4 -->
    <_>
      <maxWeakCount>6</maxWeakCount>
      <stageThreshold>-1.3375451564788818e+00</stageThreshold>
      <weakClassifiers>
        <_>
          <internalNodes>
            0 -1 53 -9.9411107599735260e-02</internalNodes>
          <leafValues>
            5.6589144468307495e-01 -6.5245902538299561e-01</leafValues></_>
        <_>
          <internalNodes>
            0 -1 161 1.9034174329135567e-05</internalNodes>
          <leafValues>
            -5.4083484411239624e-01 4.3869629502296448e-01</leafValues></_>
        <_>
          <internalNodes>
            0 -1 134 7.3551185778342187e-05</internalNodes>
          <leafValues>
            -4.8336571455001831e-01 4.9471446871757507e-01</leafValues></_>
        <_>
          <internalNodes>
            0 -1 58 1.1288647074252367e-03</internalNodes>
          <leafValues>
            2.5742664933204651e-01 -9.7792601585388184e-01</leafValues></_>
        <_>
          <internalNodes>
            0 -1 31 1.7780416237656027e-04</internalNodes>
          <leafValues>
            -4.9859273433685303e-01 4.8828697204589844e-01</leafValues></_>
        <_>
          <internalNodes>
            0 -1 98 5.0961314700543880e-03</internalNodes>
          <leafValues>
            -3.9779958128929138e-01 7.3848623037338257e-01</leafValues></_></weakClassifiers></_>
    <!-- stage 5 -->
    <_>
      <maxWeakCount>4</maxWeakCount>
      <stageThreshold>-6.3748860359191895e-01</stageThreshold>
      <weakClassifiers>
        <_>
          <internalNodes>
            0 -1 62 -3.5995975136756897e-02</internalNodes>
          <leafValues>
            7.0731705427169800e-01 -6.8488746881484985e-01</leafValues></_>
        <_>
          <internalNodes>
            0 -1 67 9.0439412742853165e-03</internalNodes>
          <leafValues>
            -4.7071260213851929e-01 7.2947549819946289e-01</leafValues></_>
        <_>
          <internalNodes>
            0 -1 78 4.2311125434935093e-04</internalNodes>
          <leafValues>
            3.2306194305419922e-01 -9.7587591409683228e-01</leafValues></_>
        <_>
          <internalNodes>
            0 -1 94 -2.6995211374014616e-04</internalNodes>
          <leafValues>
            -8.9907449483871460e-01 1.9504947960376740e-01</leafValues></_></weakClassifiers></_>
    <!-- stage 6 -->
    <_>
      <maxWeakCount>6</maxWeakCount>
      <stageThreshold>-9.1356492042541504e-01</stageThreshold>
      <weakClassifiers>
        <_>
          <internalNodes>
            0 -1 39 -1.4702309668064117e-01</internalNodes>
          <leafValues>
            6.1666667461395264e-01 -6.3694268465042114e-01</leafValues></_>
        <_>
          <internalNodes>
            0 -1 56 9.2398431152105331e-03</internalNodes>
          <leafValues>
            -3.9244481921195984e-01 6.6340929269790649e-01</leafValues></_>
        <_>
          <internalNodes>
            0 -1 95 7.7154010068625212e-04</internalNodes>
          <leafValues>
            3.1547892093658447e-01 -7.8580498695373535e-01</leafValues></_>
        <_>
          <internalNodes>
            0 -1 97 3.4626834094524384e-03</internalNodes>
          <leafValues>
            -3.2807645201683044e-01 7.4331468343734741e-01</leafValues></_>
        <_>
          <internalNodes>
            0 -1 151 -4.0639471262693405e-03</internalNodes>
          <leafValues>
            5.7222539186477661e-01 -4.1073989868164063e-01</leafValues></_>
        <_>
          <internalNodes>
            0 -1 18 -8.6118504405021667e-03</internalNodes>
          <leafValues>
            5.4656296968460083e-01 -4.4380524754524231e-01</leafValues></_></weakClassifiers></_>
    <!-- stage 7 -->
    <_>
      <maxWeakCount>6</maxWeakCount>
      <stageThreshold>-7.6529765129089355e-01</stageThreshold>
      <weakClassifiers>
        <_>
          <internalNodes>
            0 -1 139 1.5428626909852028e-02</internalNodes>
          <leafValues>
            -6.4625853300094604e-01 4.5714285969734192e-01</leafValues></_>
        <_>
          <internalNodes>
            0 -1 3 7.8668929636478424e-03</internalNodes>
          <leafValues>
            -4.3571376800537109e-01 6.1693292856216431e-01</leafValues></_>
        <_>
          <internalNodes>
            0 -1 10 -6.3450736925005913e-03</internalNodes>
          <leafValues>
            8.0327618122100830e-01 -2.9229131340980530e-01</leafValues></_>
        <_>
          <internalNodes>
            0 -1 46 -5.5196597240865231e-03</internalNodes>
          <leafValues>
            5.0092619657516479e-01 -4.5788732171058655e-01</leafValues></_>
        <_>
          <internalNodes>
            0 -1 106 4.2187171056866646e-03</internalNodes>
          <leafValues>
            -4.5523214340209961e-01 5.3351753950119019e-01</leafValues></_>
        <_>
          <internalNodes>
            0 -1 99 -1.0157891083508730e-03</internalNodes>
          <leafValues>
            5.6347304582595825e-01 -4.2547780275344849e-01</leafValues></_></weakClassifiers></_>
    <!-- stage 8 -->
    <_>
      <maxWeakCount>5</maxWeakCount>
      <stageThreshold>-1.1171658039093018e+00</stageThreshold>
      <weakClassifiers>
        <_>
          <internalNodes>
            0 -1 155 -1.4639952220022678e-02</internalNodes>
          <leafValues>
            6.6000002622604370e-01 -5.7485032081604004e-01</leafValues></_>
        <_>
          <internalNodes>
            0 -1 19 -1.7246898263692856e-02</internalNodes>
          <leafValues>
            6.1820870637893677e-01 -4.3824663758277893e-01</leafValues></_>
        <_>
          <internalNodes>
            0 -1 121 4.0953926509246230e-04</internalNodes>
          <leafValues>
            2.8337347507476807e-01 -9.1767662763595581e-01</leafValues></_>
        <_>
          <internalNodes>
            0 -1 122 8.0218585208058357e-04</internalNodes>
          <leafValues>
            2.5548088550567627e-01 -8.9827388525009155e-01</leafValues></_>
        <_>
          <internalNodes>
            0 -1 119 7.7578262425959110e-04</internalNodes>
          <leafValues>
            -5.2985966205596924e-01 5.1083153486251831e-01</leafValues></_></weakClassifiers></_>
    <!-- stage 9 -->
    <_>
      <maxWeakCount>5</maxWeakCount>
      <stageThreshold>-1.0023070573806763e+00</stageThreshold>
      <weakClassifiers>
        <_>
          <internalNodes>
            0 -1 8 1.7655141651630402e-02</internalNodes>
          <leafValues>
            -4.9726775288581848e-01 8.2352942228317261e-01</leafValues></_>
        <_>
          <internalNodes>
            0 -1 120 4.5320449862629175e-04</internalNodes>
          <leafValues>
            2.4021635949611664e-01 -9.3278485536575317e-01</leafValues></_>
        <_>
          <internalNodes>
            0 -1 153 -7.3736142367124557e-03</internalNodes>
          <leafValues>
            5.4085540771484375e-01 -4.2443975806236267e-01</leafValues></_>
        <_>
          <internalNodes>
            0 -1 51 -2.3571527563035488e-03</internalNodes>
          <leafValues>
            -9.3871110677719116e-01 2.8655219078063965e-01</leafValues></_>
        <_>
          <internalNodes>
            0 -1 132 5.6882930221036077e-04</internalNodes>
          <leafValues>
            -4.1938126087188721e-01 5.6563317775726318e-01</leafValues></_></weakClassifiers></_>
    <!-- stage 10 -->
    <_>
      <maxWeakCount>5</maxWeakCount>
      <stageThreshold>-1.1433261632919312e+00</stageThreshold>
      <weakClassifiers>
        <_>
          <internalNodes>
            0 -1 7 1.4699296094477177e-02</internalNodes>
          <leafValues>
            -5.2737754583358765e-01 6.5517240762710571e-01</leafValues></_>
        <_>
          <internalNodes>
            0 -1 96 -8.1415532622486353e-04</internalNodes>
          <leafValues>
            -7.6905888319015503e-01 3.2256031036376953e-01</leafValues></_>
        <_>
          <internalNodes>
            0 -1 159 -5.4696477018296719e-03</internalNodes>
          <leafValues>
            5.1096683740615845e-01 -4.4081351161003113e-01</leafValues></_>
        <_>
          <internalNodes>
            0 -1 110 2.4084709584712982e-03</internalNodes>
          <leafValues>
            -5.6112849712371826e-01 3.8115498423576355e-01</leafValues></_>
        <_>
          <internalNodes>
            0 -1 82 3.5955989733338356e-03</internalNodes>
          <leafValues>
            2.1276874840259552e-01 -1.</leafValues></_></weakClassifiers></_>
    <!-- stage 11 -->
    <_>
      <maxWeakCount>5</maxWeakCount>
      <stageThreshold>-1.2541663646697998e+00</stageThreshold>
      <weakClassifiers>
        <_>
          <internalNodes>
            0 -1 2 2.8532838821411133e-01</internalNodes>
          <leafValues>
            -6.0655736923217773e-01 4.5736435055732727e-01</leafValues></_>
        <_>
          <internalNodes>
            0 -1 152 -9.9451317510101944e-05</internalNodes>
          <leafValues>
            2.9846209287643433e-01 -6.6867721080780029e-01</leafValues></_>
        <_>
          <internalNodes>
            0 -1 27 2.0820335485041142e-03</internalNodes>
          <leafValues>
            1.7175672948360443e-01 -9.6745729446411133e-01</leafValues></_>
        <_>
          <internalNodes>
            0 -1 63 2.9929164156783372e-05</internalNodes>
          <leafValues>
            -4.2065852880477905e-01 5.2323138713836670e-01</leafValues></_>
        <_>
          <internalNodes>
            0 -1 36 -1.3187194708734751e-03</internalNodes>
          <leafValues>
            -9.6066892147064209e-01 2.6997002959251404e-01</leafValues></_></weakClassifiers></_>
    <!-- stage 12 -->
    <_>
      <maxWeakCount>7</maxWeakCount>
      <stageThreshold>-1.2548539638519287e+00</stageThreshold>
      <weakClassifiers>
        <_>
          <internalNodes>
            0 -1 23 6.2789376825094223e-03</internalNodes>
          <leafValues>
            -5.9365081787109375e-01 5.1260507106781006e-01</leafValues></_>
        <_>
          <internalNodes>
            0 -1 33 -2.4180451873689890e-03</internalNodes>
          <leafValues>
            3.9611437916755676e-01 -4.8092472553253174e-01</leafValues></_>
        <_>
          <internalNodes>
            0 -1 59 -5.2821205463260412e-04</internalNodes>
          <leafValues>
            6.4866453409194946e-01 -2.9616722464561462e-01</leafValues></_>
        <_>
          <internalNodes>
            0 -1 29 -1.3713377993553877e-03</internalNodes>
          <leafValues>
            4.4419193267822266e-01 -4.2460530996322632e-01</leafValues></_>
        <_>
          <internalNodes>
            0 -1 114 1.0483897291123867e-02</internalNodes>
          <leafValues>
            -2.8873974084854126e-01 7.6453292369842529e-01</leafValues></_>
        <_>
          <internalNodes>
            0 -1 22 -5.1524618174880743e-04</internalNodes>
          <leafValues>
            6.1194801330566406e-01 -2.8926175832748413e-01</leafValues></_>
        <_>
          <internalNodes>
            0 -1 86 7.7782169682905078e-04</internalNodes>
          <leafValues>
            2.4969832599163055e-01 -8.4355169534683228e-01</leafValues></_></weakClassifiers></_>
    <!-- stage 13 -->
    <_>
      <maxWeakCount>7</maxWeakCount>
      <stageThreshold>-1.6028183698654175e+00</stageThreshold>
      <weakClassifiers>
        <_>
          <internalNodes>
            0 -1 157 5.5170455016195774e-03</internalNodes>
          <leafValues>
            -6.2758618593215942e-01 3.8888889551162720e-01</leafValues></_>
        <_>
          <internalNodes>
            0 -1 1 5.2241650409996510e-03</internalNodes>
          <leafValues>
            -4.6389928460121155e-01 5.7217705249786377e-01</leafValues></_>
        <_>
          <internalNodes>
            0 -1 69 -4.6859413851052523e-04</internalNodes>
          <leafValues>
            6.8055927753448486e-01 -2.8282254934310913e-01</leafValues></_>
        <_>
          <internalNodes>
            0 -1 104 1.0419103782624006e-03</internalNodes>
          <leafValues>
            -4.5755347609519958e-01 4.7802790999412537e-01</leafValues></_>
        <_>
          <internalNodes>
            0 -1 55 3.5934480838477612e-03</internalNodes>
          <leafValues>
            -3.1150469183921814e-01 6.6594159603118896e-01</leafValues></_>
        <_>
          <internalNodes>
            0 -1 115 1.3654289767146111e-02</internalNodes>
          <leafValues>
            -3.1410738825798035e-01 6.5681719779968262e-01</leafValues></_>
        <_>
          <internalNodes>
            0 -1 100 -3.4299008548259735e-03</internalNodes>
          <leafValues>
            8.3604305982589722e-01 -1.8142107129096985e-01</leafValues></_></weakClassifiers></_>
    <!-- stage 14 -->
    <_>
      <maxWeakCount>5</maxWeakCount>
      <stageThreshold>-8.1702041625976563e-01</stageThreshold>
      <weakClassifiers>
        <_>
          <internalNodes>
            0 -1 117 -1.2002785224467516e-03</internalNodes>
          <leafValues>
            -9.3750000000000000e-01 -1.9607843831181526e-02</leafValues></_>
        <_>
          <internalNodes>
            0 -1 130 -1.6748548950999975e-03</internalNodes>
          <leafValues>
            2.6501658558845520e-01 -6.2394595146179199e-01</leafValues></_>
        <_>
          <internalNodes>
            0 -1 38 -1.7850100994110107e-03</internalNodes>
          <leafValues>
            -9.3707478046417236e-01 1.9832566380500793e-01</leafValues></_>
        <_>
          <internalNodes>
            0 -1 0 1.0888585820794106e-02</internalNodes>
          <leafValues>
            -3.1554004549980164e-01 6.9320398569107056e-01</leafValues></_>
        <_>
          <internalNodes>
            0 -1 126 -1.3707554899156094e-03</internalNodes>
          <leafValues>
            -9.6800440549850464e-01 1.9018568098545074e-01</leafValues></_></weakClassifiers></_>
    <!-- stage 15 -->
    <_>
      <maxWeakCount>8</maxWeakCount>
      <stageThreshold>-8.5206484794616699e-01</stageThreshold>
      <weakClassifiers>
        <_>
          <internalNodes>
            0 -1 143 -1.8732046009972692e-03</internalNodes>
          <leafValues>
            5.2475249767303467e-01 -5.3753751516342163e-01</leafValues></_>
        <_>
          <internalNodes>
            0 -1 124 5.0262891454622149e-04</internalNodes>
          <leafValues>
            -3.8649156689643860e-01 6.3332217931747437e-01</leafValues></_>
        <_>
          <internalNodes>
            0 -1 70 5.8703236281871796e-03</internalNodes>
          <leafValues>
            -3.6108615994453430e-01 5.5593979358673096e-01</leafValues></_>
        <_>
          <internalNodes>
            0 -1 57 -6.1279558576643467e-04</internalNodes>
          <leafValues>
            7.3348563909530640e-01 -2.2145688533782959e-01</leafValues></_>
        <_>
          <internalNodes>
            0 -1 123 -8.9806556934490800e-04</internalNodes>
          <leafValues>
            7.6022958755493164e-01 -2.0056496560573578e-01</leafValues></_>
        <_>
          <internalNodes>
            0 -1 24 -3.4930670517496765e-04</internalNodes>
          <leafValues>
            5.8418852090835571e-01 -3.1582829356193542e-01</leafValues></_>
        <_>
          <internalNodes>
            0 -1 32 -9.9762910977005959e-03</internalNodes>
          <leafValues>
            5.7660430669784546e-01 -3.5361766815185547e-01</leafValues></_>
        <_>
          <internalNodes>
            0 -1 131 1.3026271481066942e-03</internalNodes>
          <leafValues>
            -2.9252445697784424e-01 7.8068423271179199e-01</leafValues></_></weakClassifiers></_>
    <!-- stage 16 -->
    <_>
      <maxWeakCount>7</maxWeakCount>
      <stageThreshold>-9.3376541137695313e-01</stageThreshold>
      <weakClassifiers>
        <_>
          <internalNodes>
            0 -1 148 -8.9874323457479477e-03</internalNodes>
          <leafValues>
            2.6027396321296692e-01 -5.6944441795349121e-01</leafValues></_>
        <_>
          <internalNodes>
            0 -1 25 2.1704528480768204e-03</internalNodes>
          <leafValues>
            -3.8020375370979309e-01 4.1778716444969177e-01</leafValues></_>
        <_>
          <internalNodes>
            0 -1 48 -3.8200887502171099e-04</internalNodes>
          <leafValues>
            6.6111552715301514e-01 -2.4849414825439453e-01</leafValues></_>
        <_>
          <internalNodes>
            0 -1 92 6.8933179136365652e-04</internalNodes>
          <leafValues>
            2.1822194755077362e-01 -8.2237458229064941e-01</leafValues></_>
        <_>
          <internalNodes>
            0 -1 68 -8.0095278099179268e-04</internalNodes>
          <leafValues>
            6.4579200744628906e-01 -2.3405689001083374e-01</leafValues></_>
        <_>
          <internalNodes>
            0 -1 80 -1.9767940975725651e-03</internalNodes>
          <leafValues>
            -8.6983454227447510e-01 2.1662993729114532e-01</leafValues></_>
        <_>
          <internalNodes>
            0 -1 108 -2.7207628590986133e-04</internalNodes>
          <leafValues>
            5.2458572387695313e-01 -3.1691527366638184e-01</leafValues></_></weakClassifiers></_>
    <!-- stage 17 -->
    <_>
      <maxWeakCount>7</maxWeakCount>
      <stageThreshold>-1.0480203628540039e+00</stageThreshold>
      <weakClassifiers>
        <_>
          <internalNodes>
            0 -1 20 4.8855714499950409e-02</internalNodes>
          <leafValues>
            -4.8459383845329285e-01 6.1038959026336670e-01</leafValues></_>
        <_>
          <internalNodes>
            0 -1 81 2.3317998275160789e-03</internalNodes>
          <leafValues>
            2.0913730561733246e-01 -9.1496020555496216e-01</leafValues></_>
        <_>
          <internalNodes>
            0 -1 78 -5.1589799113571644e-04</internalNodes>
          <leafValues>
            -8.7084650993347168e-01 1.7702759802341461e-01</leafValues></_>
        <_>
          <internalNodes>
            0 -1 118 2.2049159742891788e-03</internalNodes>
          <leafValues>
            1.5210846066474915e-01 -9.1511517763137817e-01</leafValues></_>
        <_>
          <internalNodes>
            0 -1 141 3.2081226818263531e-03</internalNodes>
          <leafValues>
            -6.2131625413894653e-01 2.6513379812240601e-01</leafValues></_>
        <_>
          <internalNodes>
            0 -1 111 -1.5254416503012180e-03</internalNodes>
          <leafValues>
            -7.6308548450469971e-01 2.2869694232940674e-01</leafValues></_>
        <_>
          <internalNodes>
            0 -1 107 -3.3461529528722167e-04</internalNodes>
          <leafValues>
            3.5814306139945984e-01 -4.5732802152633667e-01</leafValues></_></weakClassifiers></_>
    <!-- stage 18 -->
    <_>
      <maxWeakCount>8</maxWeakCount>
      <stageThreshold>-8.8316649198532104e-01</stageThreshold>
      <weakClassifiers>
        <_>
          <internalNodes>
            0 -1 4 1.2076827697455883e-02</internalNodes>
          <leafValues>
            -4.7277936339378357e-01 4.5882353186607361e-01</leafValues></_>
        <_>
          <internalNodes>
            0 -1 147 8.8544208556413651e-03</internalNodes>
          <leafValues>
            -2.9833042621612549e-01 4.7310930490493774e-01</leafValues></_>
        <_>
          <internalNodes>
            0 -1 74 -4.6233376488089561e-03</internalNodes>
          <leafValues>
            4.0359950065612793e-01 -3.7350800633430481e-01</leafValues></_>
        <_>
          <internalNodes>
            0 -1 49 1.1917278170585632e-03</internalNodes>
          <leafValues>
            -2.0077146589756012e-01 7.0717555284500122e-01</leafValues></_>
        <_>
          <internalNodes>
            0 -1 85 -1.3477004831656814e-03</internalNodes>
          <leafValues>
            -7.4057865142822266e-01 2.3857448995113373e-01</leafValues></_>
        <_>
          <internalNodes>
            0 -1 44 -1.4181295409798622e-03</internalNodes>
          <leafValues>
            6.4760941267013550e-01 -2.6851353049278259e-01</leafValues></_>
        <_>
          <internalNodes>
            0 -1 125 -4.2048387695103884e-04</internalNodes>
          <leafValues>
            4.0823581814765930e-01 -3.7456613779067993e-01</leafValues></_>
        <_>
          <internalNodes>
            0 -1 28 9.2211458832025528e-04</internalNodes>
          <leafValues>
            1.5831840038299561e-01 -9.2158710956573486e-01</leafValues></_></weakClassifiers></_>
    <!-- stage 19 -->
    <_>
      <maxWeakCount>7</maxWeakCount>
      <stageThreshold>-1.0734378099441528e+00</stageThreshold>
      <weakClassifiers>
        <_>
          <internalNodes>
            0 -1 109 -2.3827487602829933e-03</internalNodes>
          <leafValues>
            1.6363635659217834e-01 -5.6877321004867554e-01</leafValues></_>
        <_>
          <internalNodes>
            0 -1 160 -6.0785198002122343e-05</internalNodes>
          <leafValues>
            2.5382858514785767e-01 -5.0609922409057617e-01</leafValues></_>
        <_>
          <internalNodes>
            0 -1 43 1.8035186803899705e-04</internalNodes>
          <leafValues>
            -4.8511445522308350e-01 2.6919227838516235e-01</leafValues></_>
        <_>
          <internalNodes>
            0 -1 113 -5.4717797320336103e-04</internalNodes>
          <leafValues>
            5.1233559846878052e-01 -2.7469170093536377e-01</leafValues></_>
        <_>
          <internalNodes>
            0 -1 12 1.7384730745106936e-03</internalNodes>
          <leafValues>
            1.2419594824314117e-01 -9.0654581785202026e-01</leafValues></_>
        <_>
          <internalNodes>
            0 -1 9 2.9870769940316677e-03</internalNodes>
          <leafValues>
            -2.8736177086830139e-01 5.2349483966827393e-01</leafValues></_>
        <_>
          <internalNodes>
            0 -1 116 8.5974542889744043e-04</internalNodes>
          <leafValues>
            1.6447874903678894e-01 -7.9227542877197266e-01</leafValues></_></weakClassifiers></_>
    <!-- stage 20 -->
    <_>
      <maxWeakCount>9</maxWeakCount>
      <stageThreshold>-8.8586992025375366e-01</stageThreshold>
      <weakClassifiers>
        <_>
          <internalNodes>
            0 -1 65 6.3875801861286163e-03</internalNodes>
          <leafValues>
            -4.0306121110916138e-01 7.6190477609634399e-01</leafValues></_>
        <_>
          <internalNodes>
            0 -1 47 -1.9104515668004751e-03</internalNodes>
          <leafValues>
            2.9393851757049561e-01 -5.2275556325912476e-01</leafValues></_>
        <_>
          <internalNodes>
            0 -1 90 1.0673726210370660e-03</internalNodes>
          <leafValues>
            -3.2582819461822510e-01 4.1871014237403870e-01</leafValues></_>
        <_>
          <internalNodes>
            0 -1 79 -3.2547389855608344e-04</internalNodes>
          <leafValues>
            3.9910322427749634e-01 -3.1716242432594299e-01</leafValues></_>
        <_>
          <internalNodes>
            0 -1 136 3.4025683999061584e-04</internalNodes>
          <leafValues>
            -3.2132688164710999e-01 4.4574195146560669e-01</leafValues></_>
        <_>
          <internalNodes>
            0 -1 145 1.1703660711646080e-03</internalNodes>
          <leafValues>
            -2.3937460780143738e-01 5.7191115617752075e-01</leafValues></_>
        <_>
          <internalNodes>
            0 -1 105 7.3448903858661652e-03</internalNodes>
          <leafValues>
            -2.1777515113353729e-01 6.9322174787521362e-01</leafValues></_>
        <_>
          <internalNodes>
            0 -1 54 -1.1738101020455360e-03</internalNodes>
          <leafValues>
            6.4854305982589722e-01 -1.9436179101467133e-01</leafValues></_>
        <_>
          <internalNodes>
            0 -1 129 2.2791682276874781e-03</internalNodes>
          <leafValues>
            1.9497196376323700e-01 -8.5142844915390015e-01</leafValues></_></weakClassifiers></_>
    <!-- stage 21 -->
    <_>
      <maxWeakCount>9</maxWeakCount>
      <stageThreshold>-8.0501389503479004e-01</stageThreshold>
      <weakClassifiers>
        <_>
          <internalNodes>
            0 -1 21 5.7261547772213817e-04</internalNodes>
          <leafValues>
            -7.7441073954105377e-02 -7.5182479619979858e-01</leafValues></_>
        <_>
          <internalNodes>
            0 -1 11 1.4774384908378124e-03</internalNodes>
          <leafValues>
            1.1254449933767319e-01 -8.9813357591629028e-01</leafValues></_>
        <_>
          <internalNodes>
            0 -1 14 -2.5333960074931383e-03</internalNodes>
          <leafValues>
            3.3920171856880188e-01 -3.2809159159660339e-01</leafValues></_>
        <_>
          <internalNodes>
            0 -1 45 2.0482740364968777e-03</internalNodes>
          <leafValues>
            -2.3851728439331055e-01 4.9543097615242004e-01</leafValues></_>
        <_>
          <internalNodes>
            0 -1 71 -1.8014189554378390e-03</internalNodes>
          <leafValues>
            7.3384171724319458e-01 -1.5937626361846924e-01</leafValues></_>
        <_>
          <internalNodes>
            0 -1 60 -9.3935313634574413e-04</internalNodes>
          <leafValues>
            -7.0595026016235352e-01 1.8795277178287506e-01</leafValues></_>
        <_>
          <internalNodes>
            0 -1 101 6.6815095487982035e-04</internalNodes>
          <leafValues>
            -2.3920512199401855e-01 5.4011505842208862e-01</leafValues></_>
        <_>
          <internalNodes>
            0 -1 83 -4.1063590906560421e-03</internalNodes>
          <leafValues>
            7.6984953880310059e-01 -1.7929841578006744e-01</leafValues></_>
        <_>
          <internalNodes>
            0 -1 34 -1.7014315351843834e-02</internalNodes>
          <leafValues>
            4.5980334281921387e-01 -2.9361346364021301e-01</leafValues></_></weakClassifiers></_>
    <!-- stage 22 -->
    <_>
      <maxWeakCount>11</maxWeakCount>
      <stageThreshold>-9.5243561267852783e-01</stageThreshold>
      <weakClassifiers>
        <_>
          <internalNodes>
            0 -1 6 -1.6747987829148769e-03</internalNodes>
          <leafValues>
            3.8271605968475342e-01 -4.4475921988487244e-01</leafValues></_>
        <_>
          <internalNodes>
            0 -1 144 -6.1804673168808222e-04</internalNodes>
          <leafValues>
            2.5442269444465637e-01 -4.6946051716804504e-01</leafValues></_>
        <_>
          <internalNodes>
            0 -1 64 1.3301081489771605e-03</internalNodes>
          <leafValues>
            -2.7859139442443848e-01 5.1688557863235474e-01</leafValues></_>
        <_>
          <internalNodes>
            0 -1 133 -3.1752762151882052e-04</internalNodes>
          <leafValues>
            -5.5760073661804199e-01 2.4053716659545898e-01</leafValues></_>
        <_>
          <internalNodes>
            0 -1 127 1.8022006843239069e-03</internalNodes>
          <leafValues>
            1.7903262376785278e-01 -7.1226322650909424e-01</leafValues></_>
        <_>
          <internalNodes>
            0 -1 17 -2.6778501924127340e-03</internalNodes>
          <leafValues>
            7.8355932235717773e-01 -1.6554312407970428e-01</leafValues></_>
        <_>
          <internalNodes>
            0 -1 75 2.2336537949740887e-03</internalNodes>
          <leafValues>
            1.5828736126422882e-01 -8.3747863769531250e-01</leafValues></_>
        <_>
          <internalNodes>
            0 -1 146 4.3386581819504499e-04</internalNodes>
          <leafValues>
            -2.9926896095275879e-01 4.6269151568412781e-01</leafValues></_>
        <_>
          <internalNodes>
            0 -1 154 -1.2454195530153811e-04</internalNodes>
          <leafValues>
            5.4548126459121704e-01 -2.5952175259590149e-01</leafValues></_>
        <_>
          <internalNodes>
            0 -1 16 -4.7685403842478991e-04</internalNodes>
          <leafValues>
            3.3835566043853760e-01 -4.6045172214508057e-01</leafValues></_>
        <_>
          <internalNodes>
            0 -1 88 8.5223466157913208e-04</internalNodes>
          <leafValues>
            2.0971350371837616e-01 -6.9220775365829468e-01</leafValues></_></weakClassifiers></_>
    <!-- stage 23 -->
    <_>
      <maxWeakCount>11</maxWeakCount>
      <stageThreshold>-1.3368146419525146e+00</stageThreshold>
      <weakClassifiers>
        <_>
          <internalNodes>
            0 -1 128 1.0443376377224922e-03</internalNodes>
          <leafValues>
            -4.1952505707740784e-01 6.0000002384185791e-01</leafValues></_>
        <_>
          <internalNodes>
            0 -1 89 1.9629450980573893e-03</internalNodes>
          <leafValues>
            -2.7675554156303406e-01 4.6631121635437012e-01</leafValues></_>
        <_>
          <internalNodes>
            0 -1 91 -6.3703244086354971e-04</internalNodes>
          <leafValues>
            4.4734829664230347e-01 -3.0331581830978394e-01</leafValues></_>
        <_>
          <internalNodes>
            0 -1 76 3.3413015305995941e-02</internalNodes>
          <leafValues>
            1.7948797345161438e-01 -7.6893186569213867e-01</leafValues></_>
        <_>
          <internalNodes>
            0 -1 71 2.0312438718974590e-03</internalNodes>
          <leafValues>
            -1.3166953623294830e-01 8.7737047672271729e-01</leafValues></_>
        <_>
          <internalNodes>
            0 -1 13 2.0222064107656479e-02</internalNodes>
          <leafValues>
            2.0667502284049988e-01 -7.6924872398376465e-01</leafValues></_>
        <_>
          <internalNodes>
            0 -1 50 7.6048367191106081e-05</internalNodes>
          <leafValues>
            -3.7997519969940186e-01 3.3642461895942688e-01</leafValues></_>
        <_>
          <internalNodes>
            0 -1 142 -2.8714607469737530e-03</internalNodes>
          <leafValues>
            2.4414242804050446e-01 -4.7915667295455933e-01</leafValues></_>
        <_>
          <internalNodes>
            0 -1 103 1.1158236302435398e-03</internalNodes>
          <leafValues>
            1.9495059549808502e-01 -6.4798080921173096e-01</leafValues></_>
        <_>
          <internalNodes>
            0 -1 26 1.2700476218014956e-03</internalNodes>
          <leafValues>
            -2.1663473546504974e-01 8.0288791656494141e-01</leafValues></_>
        <_>
          <internalNodes>
            0 -1 73 6.1477697454392910e-04</internalNodes>
          <leafValues>
            -4.3419483304023743e-01 3.9327725768089294e-01</leafValues></_></weakClassifiers></_>
    <!-- stage 24 -->
    <_>
      <maxWeakCount>11</maxWeakCount>
      <stageThreshold>-1.0089930295944214e+00</stageThreshold>
      <weakClassifiers>
        <_>
          <internalNodes>
            0 -1 40 -5.7075079530477524e-04</internalNodes>
          <leafValues>
            3.2558140158653259e-01 -4.4252872467041016e-01</leafValues></_>
        <_>
          <internalNodes>
            0 -1 72 -7.3357457295060158e-03</internalNodes>
          <leafValues>
            3.2433167099952698e-01 -3.3499473333358765e-01</leafValues></_>
        <_>
          <internalNodes>
            0 -1 102 -7.1957940235733986e-04</internalNodes>
          <leafValues>
            4.3757823109626770e-01 -2.8402036428451538e-01</leafValues></_>
        <_>
          <internalNodes>
            0 -1 5 -4.9038357101380825e-03</internalNodes>
          <leafValues>
            7.1788543462753296e-01 -1.9697329401969910e-01</leafValues></_>
        <_>
          <internalNodes>
            0 -1 135 -1.0926553513854742e-03</internalNodes>
          <leafValues>
            6.9923746585845947e-01 -1.3681611418724060e-01</leafValues></_>
        <_>
          <internalNodes>
            0 -1 138 1.5574039425700903e-03</internalNodes>
          <leafValues>
            -4.4632935523986816e-01 2.7482610940933228e-01</leafValues></_>
        <_>
          <internalNodes>
            0 -1 77 4.7871630522422493e-04</internalNodes>
          <leafValues>
            2.3468522727489471e-01 -5.7590430974960327e-01</leafValues></_>
        <_>
          <internalNodes>
            0 -1 52 -5.6514916650485247e-05</internalNodes>
          <leafValues>
            3.4666135907173157e-01 -3.6648085713386536e-01</leafValues></_>
        <_>
          <internalNodes>
            0 -1 84 -1.0753711685538292e-03</internalNodes>
          <leafValues>
            4.5596519112586975e-01 -2.9372182488441467e-01</leafValues></_>
        <_>
          <internalNodes>
            0 -1 93 1.4420859515666962e-03</internalNodes>
          <leafValues>
            1.7853941023349762e-01 -7.4137276411056519e-01</leafValues></_>
        <_>
          <internalNodes>
            0 -1 37 2.0955651998519897e-03</internalNodes>
          <leafValues>
            -2.5034159421920776e-01 5.5169123411178589e-01</leafValues></_></weakClassifiers></_></stages>
  <features>
    <_>
      <rects>
        <_>
          0 0 2 16 -1.</_>
        <_>
          0 0 1 8 2.</_>
        <_>
          1 8 1 8 2.</_></rects>
      <tilted>0</tilted></_>
    <_>
      <rects>
        <_>
          0 0 8 4 -1.</_>
        <_>
          0 0 4 2 2.</_>
        <_>
          4 2 4 2 2.</_></rects>
      <tilted>0</tilted></_>
    <_>
      <rects>
        <_>
          0 0 24 23 -1.</_>
        <_>
          8 0 8 23 3.</_></rects>
      <tilted>0</tilted></_>
    <_>
      <rects>
        <_>
          0 3 2 13 -1.</_>
        <_>
          1 3 1 13 2.</_></rects>
      <tilted>0</tilted></_>
    <_>
      <rects>
        <_>
          0 6 3 9 -1.</_>
        <_>
          1 6 1 9 3.</_></rects>
      <tilted>0</tilted></_>
    <_>
      <rects>
        <_>
          0 6 2 11 -1.</_>
        <_>
          1 6 1 11 2.</_></rects>
      <tilted>0</tilted></_>
    <_>
      <rects>
        <_>
          0 7 2 4 -1.</_>
        <_>
          0 7 1 2 2.</_>
        <_>
          1 9 1 2 2.</_></rects>
      <tilted>0</tilted></_>
    <_>
      <rects>
        <_>
          0 7 2 10 -1.</_>
        <_>
          1 7 1 10 2.</_></rects>
      <tilted>0</tilted></_>
    <_>
      <rects>
        <_>
          0 8 2 10 -1.</_>
        <_>
          1 8 1 10 2.</_></rects>
      <tilted>0</tilted></_>
    <_>
      <rects>
        <_>
          0 10 3 3 -1.</_>
        <_>
          1 10 1 3 3.</_></rects>
      <tilted>0</tilted></_>
    <_>
      <rects>
        <_>
          0 10 3 6 -1.</_>
        <_>
          1 10 1 6 3.</_></rects>
      <tilted>0</tilted></_>
    <_>
      <rects>
        <_>
          0 10 4 3 -1.</_>
        <_>
          0 11 4 1 3.</_></rects>
      <tilted>0</tilted></_>
    <_>
      <rects>
        <_>
          0 11 4 3 -1.</_>
        <_>
          0 12 4 1 3.</_></rects>
      <tilted>0</tilted></_>
    <_>
      <rects>
        <_>
          0 11 14 2 -1.</_>
        <_>
          7 11 7 2 2.</_></rects>
      <tilted>0</tilted></_>
    <_>
      <rects>
        <_>
          0 14 4 6 -1.</_>
        <_>
          0 14 2 3 2.</_>
        <_>
          2 17 2 3 2.</_></rects>
      <tilted>0</tilted></_>
    <_>
      <rects>
        <_>
          0 14 4 10 -1.</_>
        <_>
          0 14 2 5 2.</_>
        <_>
          2 19 2 5 2.</_></rects>
      <tilted>0</tilted></_>
    <_>
      <rects>
        <_>
          0 15 3 2 -1.</_>
        <_>
          0 16 3 1 2.</_></rects>
      <tilted>0</tilted></_>
    <_>
      <rects>
        <_>
          0 16 3 1 -1.</_>
        <_>
          1 16 1 1 3.</_></rects>
      <tilted>0</tilted></_>
    <_>
      <rects>
        <_>
          0 17 6 6 -1.</_>
        <_>
          0 17 3 3 2.</_>
        <_>
          3 20 3 3 2.</_></rects>
      <tilted>0</tilted></_>
    <_>
      <rects>
        <_>
          0 20 10 4 -1.</_>
        <_>
          0 20 5 2 2.</_>
        <_>
          5 22 5 2 2.</_></rects>
      <tilted>0</tilted></_>
    <_>
      <rects>
        <_>
          0 21 24 1 -1.</_>
        <_>
          8 21 8 1 3.</_></rects>
      <tilted>0</tilted></_>
    <_>
      <rects>
        <_>
          1 0 1 4 -1.</_>
        <_>
          1 2 1 2 2.</_></rects>
      <tilted>0</tilted></_>
    <_>
      <rects>
        <_>
          1 2 4 2 -1.</_>
        <_>
          1 2 2 1 2.</_>
        <_>
          3 3 2 1 2.</_></rects>
      <tilted>0</tilted></_>
    <_>
      <rects>
        <_>
          1 2 10 1 -1.</_>
        <_>
          6 2 5 1 2.</_></rects>
      <tilted>0</tilted></_>
    <_>
      <rects>
        <_>
          1 5 2 2 -1.</_>
        <_>
          1 5 1 1 2.</_>
        <_>
          2 6 1 1 2.</_></rects>
      <tilted>0</tilted></_>
    <_>
      <rects>
        <_>
          1 5 2 4 -1.</_>
        <_>
          2 5 1 4 2.</_></rects>
      <tilted>0</tilted></_>
    <_>
      <rects>
        <_>
          1 6 2 2 -1.</_>
        <_>
          1 6 1 1 2.</_>
        <_>
          2 7 1 1 2.</_></rects>
      <tilted>0</tilted></_>
    <_>
      <rects>
        <_>
          1 7 5 3 -1.</_>
        <_>
          1 8 5 1 3.</_></rects>
      <tilted>0</tilted></_>
    <_>
      <rects>
        <_>
          1 9 3 3 -1.</_>
        <_>
          1 10 3 1 3.</_></rects>
      <tilted>0</tilted></_>
    <_>
      <rects>
        <_>
          1 11 1 6 -1.</_>
        <_>
          1 14 1 3 2.</_></rects>
      <tilted>0</tilted></_>
    <_>
      <rects>
        <_>
          1 11 6 10 -1.</_>
        <_>
          1 11 3 5 2.</_>
        <_>
          4 16 3 5 2.</_></rects>
      <tilted>0</tilted></_>
    <_>
      <rects>
        <_>
          1 15 2 1 -1.</_>
        <_>
          2 15 1 1 2.</_></rects>
      <tilted>0</tilted></_>
    <_>
      <rects>
        <_>
          1 17 4 6 -1.</_>
        <_>
          1 17 2 3 2.</_>
        <_>
          3 20 2 3 2.</_></rects>
      <tilted>0</tilted></_>
    <_>
      <rects>
        <_>
          1 20 7 2 -1.</_>
        <_>
          1 21 7 1 2.</_></rects>
      <tilted>0</tilted></_>
    <_>
      <rects>
        <_>
          1 21 19 2 -1.</_>
        <_>
          1 22 19 1 2.</_></rects>
      <tilted>0</tilted></_>
    <_>
      <rects>
        <_>
          2 6 2 1 -1.</_>
        <_>
          3 6 1 1 2.</_></rects>
      <tilted>0</tilted></_>
    <_>
      <rects>
        <_>
          2 7 4 3 -1.</_>
        <_>
          2 8 4 1 3.</_></rects>
      <tilted>0</tilted></_>
    <_>
      <rects>
        <_>
          2 10 14 4 -1.</_>
        <_>
          2 10 7 2 2.</_>
        <_>
          9 12 7 2 2.</_></rects>
      <tilted>0</tilted></_>
    <_>
      <rects>
        <_>
          2 11 8 2 -1.</_>
        <_>
          2 11 4 1 2.</_>
        <_>
          6 12 4 1 2.</_></rects>
      <tilted>0</tilted></_>
    <_>
      <rects>
        <_>
          2 14 20 10 -1.</_>
        <_>
          2 19 20 5 2.</_></rects>
      <tilted>0</tilted></_>
    <_>
      <rects>
        <_>
          2 16 3 1 -1.</_>
        <_>
          3 16 1 1 3.</_></rects>
      <tilted>0</tilted></_>
    <_>
      <rects>
        <_>
          2 16 2 3 -1.</_>
        <_>
          3 16 1 3 2.</_></rects>
      <tilted>0</tilted></_>
    <_>
      <rects>
        <_>
          2 16 2 4 -1.</_>
        <_>
          2 18 2 2 2.</_></rects>
      <tilted>0</tilted></_>
    <_>
      <rects>
        <_>
          2 16 6 2 -1.</_>
        <_>
          2 16 3 1 2.</_>
        <_>
          5 17 3 1 2.</_></rects>
      <tilted>0</tilted></_>
    <_>
      <rects>
        <_>
          2 20 3 1 -1.</_>
        <_>
          3 20 1 1 3.</_></rects>
      <tilted>0</tilted></_>
    <_>
      <rects>
        <_>
          2 20 6 1 -1.</_>
        <_>
          4 20 2 1 3.</_></rects>
      <tilted>0</tilted></_>
    <_>
      <rects>
        <_>
          2 20 8 4 -1.</_>
        <_>
          2 20 4 2 2.</_>
        <_>
          6 22 4 2 2.</_></rects>
      <tilted>0</tilted></_>
    <_>
      <rects>
        <_>
          2 21 6 2 -1.</_>
        <_>
          2 21 3 1 2.</_>
        <_>
          5 22 3 1 2.</_></rects>
      <tilted>0</tilted></_>
    <_>
      <rects>
        <_>
          3 3 1 2 -1.</_>
        <_>
          3 4 1 1 2.</_></rects>
      <tilted>0</tilted></_>
    <_>
      <rects>
        <_>
          3 3 2 2 -1.</_>
        <_>
          3 3 1 1 2.</_>
        <_>
          4 4 1 1 2.</_></rects>
      <tilted>0</tilted></_>
    <_>
      <rects>
        <_>
          3 8 2 1 -1.</_>
        <_>
          4 8 1 1 2.</_></rects>
      <tilted>0</tilted></_>
    <_>
      <rects>
        <_>
          3 8 8 3 -1.</_>
        <_>
          3 9 8 1 3.</_></rects>
      <tilted>0</tilted></_>
    <_>
      <rects>
        <_>
          3 9 10 2 -1.</_>
        <_>
          3 9 5 1 2.</_>
        <_>
          8 10 5 1 2.</_></rects>
      <tilted>0</tilted></_>
    <_>
      <rects>
        <_>
          3 16 19 8 -1.</_>
        <_>
          3 20 19 4 2.</_></rects>
      <tilted>0</tilted></_>
    <_>
      <rects>
        <_>
          3 19 2 2 -1.</_>
        <_>
          3 19 1 1 2.</_>
        <_>
          4 20 1 1 2.</_></rects>
      <tilted>0</tilted></_>
    <_>
      <rects>
        <_>
          3 19 8 2 -1.</_>
        <_>
          3 19 4 1 2.</_>
        <_>
          7 20 4 1 2.</_></rects>
      <tilted>0</tilted></_>
    <_>
      <rects>
        <_>
          4 0 15 2 -1.</_>
        <_>
          4 1 15 1 2.</_></rects>
      <tilted>0</tilted></_>
    <_>
      <rects>
        <_>
          4 3 2 2 -1.</_>
        <_>
          4 3 1 1 2.</_>
        <_>
          5 4 1 1 2.</_></rects>
      <tilted>0</tilted></_>
    <_>
      <rects>
        <_>
          4 8 3 3 -1.</_>
        <_>
          4 9 3 1 3.</_></rects>
      <tilted>0</tilted></_>
    <_>
      <rects>
        <_>
          5 3 2 2 -1.</_>
        <_>
          5 3 1 1 2.</_>
        <_>
          6 4 1 1 2.</_></rects>
      <tilted>0</tilted></_>
    <_>
      <rects>
        <_>
          5 11 1 6 -1.</_>
        <_>
          5 13 1 2 3.</_></rects>
      <tilted>0</tilted></_>
    <_>
      <rects>
        <_>
          5 18 13 6 -1.</_>
        <_>
          5 20 13 2 3.</_></rects>
      <tilted>0</tilted></_>
    <_>
      <rects>
        <_>
          5 20 13 4 -1.</_>
        <_>
          5 22 13 2 2.</_></rects>
      <tilted>0</tilted></_>
    <_>
      <rects>
        <_>
          5 22 1 2 -1.</_>
        <_>
          5 23 1 1 2.</_></rects>
      <tilted>0</tilted></_>
    <_>
      <rects>
        <_>
          6 0 4 2 -1.</_>
        <_>
          6 0 2 1 2.</_>
        <_>
          8 1 2 1 2.</_></rects>
      <tilted>0</tilted></_>
    <_>
      <rects>
        <_>
          6 0 6 2 -1.</_>
        <_>
          6 0 3 1 2.</_>
        <_>
          9 1 3 1 2.</_></rects>
      <tilted>0</tilted></_>
    <_>
      <rects>
        <_>
          6 0 10 2 -1.</_>
        <_>
          6 1 10 1 2.</_></rects>
      <tilted>0</tilted></_>
    <_>
      <rects>
        <_>
          6 0 13 2 -1.</_>
        <_>
          6 1 13 1 2.</_></rects>
      <tilted>0</tilted></_>
    <_>
      <rects>
        <_>
          6 1 2 2 -1.</_>
        <_>
          6 1 1 1 2.</_>
        <_>
          7 2 1 1 2.</_></rects>
      <tilted>0</tilted></_>
    <_>
      <rects>
        <_>
          6 2 2 2 -1.</_>
        <_>
          6 2 1 1 2.</_>
        <_>
          7 3 1 1 2.</_></rects>
      <tilted>0</tilted></_>
    <_>
      <rects>
        <_>
          6 20 8 3 -1.</_>
        <_>
          6 21 8 1 3.</_></rects>
      <tilted>0</tilted></_>
    <_>
      <rects>
        <_>
          6 21 2 2 -1.</_>
        <_>
          6 21 1 1 2.</_>
        <_>
          7 22 1 1 2.</_></rects>
      <tilted>0</tilted></_>
    <_>
      <rects>
        <_>
          6 22 8 2 -1.</_>
        <_>
          6 23 8 1 2.</_></rects>
      <tilted>0</tilted></_>
    <_>
      <rects>
        <_>
          7 0 2 2 -1.</_>
        <_>
          7 1 2 1 2.</_></rects>
      <tilted>0</tilted></_>
    <_>
      <rects>
        <_>
          7 10 13 8 -1.</_>
        <_>
          7 14 13 4 2.</_></rects>
      <tilted>0</tilted></_>
    <_>
      <rects>
        <_>
          7 18 3 6 -1.</_>
        <_>
          8 18 1 6 3.</_></rects>
      <tilted>0</tilted></_>
    <_>
      <rects>
        <_>
          8 3 14 6 -1.</_>
        <_>
          8 3 7 3 2.</_>
        <_>
          15 6 7 3 2.</_></rects>
      <tilted>0</tilted></_>
    <_>
      <rects>
        <_>
          8 4 6 1 -1.</_>
        <_>
          10 4 2 1 3.</_></rects>
      <tilted>0</tilted></_>
    <_>
      <rects>
        <_>
          8 5 3 1 -1.</_>
        <_>
          9 5 1 1 3.</_></rects>
      <tilted>0</tilted></_>
    <_>
      <rects>
        <_>
          8 7 1 8 -1.</_>
        <_>
          8 11 1 4 2.</_></rects>
      <tilted>0</tilted></_>
    <_>
      <rects>
        <_>
          8 14 3 6 -1.</_>
        <_>
          9 14 1 6 3.</_></rects>
      <tilted>0</tilted></_>
    <_>
      <rects>
        <_>
          8 17 3 7 -1.</_>
        <_>
          9 17 1 7 3.</_></rects>
      <tilted>0</tilted></_>
    <_>
      <rects>
        <_>
          8 17 6 2 -1.</_>
        <_>
          10 17 2 2 3.</_></rects>
      <tilted>0</tilted></_>
    <_>
      <rects>
        <_>
          8 20 6 3 -1.</_>
        <_>
          8 21 6 1 3.</_></rects>
      <tilted>0</tilted></_>
    <_>
      <rects>
        <_>
          9 14 7 6 -1.</_>
        <_>
          9 16 7 2 3.</_></rects>
      <tilted>0</tilted></_>
    <_>
      <rects>
        <_>
          9 18 6 1 -1.</_>
        <_>
          11 18 2 1 3.</_></rects>
      <tilted>0</tilted></_>
    <_>
      <rects>
        <_>
          10 1 3 3 -1.</_>
        <_>
          11 1 1 3 3.</_></rects>
      <tilted>0</tilted></_>
    <_>
      <rects>
        <_>
          10 2 1 2 -1.</_>
        <_>
          10 3 1 1 2.</_></rects>
      <tilted>0</tilted></_>
    <_>
      <rects>
        <_>
          10 20 3 3 -1.</_>
        <_>
          11 20 1 3 3.</_></rects>
      <tilted>0</tilted></_>
    <_>
      <rects>
        <_>
          11 0 3 3 -1.</_>
        <_>
          11 1 3 1 3.</_></rects>
      <tilted>0</tilted></_>
    <_>
      <rects>
        <_>
          11 0 6 2 -1.</_>
        <_>
          11 0 3 1 2.</_>
        <_>
          14 1 3 1 2.</_></rects>
      <tilted>0</tilted></_>
    <_>
      <rects>
        <_>
          11 1 6 2 -1.</_>
        <_>
          11 1 3 1 2.</_>
        <_>
          14 2 3 1 2.</_></rects>
      <tilted>0</tilted></_>
    <_>
      <rects>
        <_>
          11 3 3 3 -1.</_>
        <_>
          12 3 1 3 3.</_></rects>
      <tilted>0</tilted></_>
    <_>
      <rects>
        <_>
          11 4 6 2 -1.</_>
        <_>
          13 4 2 2 3.</_></rects>
      <tilted>0</tilted></_>
    <_>
      <rects>
        <_>
          11 18 2 2 -1.</_>
        <_>
          11 18 1 1 2.</_>
        <_>
          12 19 1 1 2.</_></rects>
      <tilted>0</tilted></_>
    <_>
      <rects>
        <_>
          11 19 3 3 -1.</_>
        <_>
          12 19 1 3 3.</_></rects>
      <tilted>0</tilted></_>
    <_>
      <rects>
        <_>
          11 20 3 2 -1.</_>
        <_>
          12 20 1 2 3.</_></rects>
      <tilted>0</tilted></_>
    <_>
      <rects>
        <_>
          11 20 2 3 -1.</_>
        <_>
          11 21 2 1 3.</_></rects>
      <tilted>0</tilted></_>
    <_>
      <rects>
        <_>
          11 22 8 2 -1.</_>
        <_>
          11 22 4 1 2.</_>
        <_>
          15 23 4 1 2.</_></rects>
      <tilted>0</tilted></_>
    <_>
      <rects>
        <_>
          13 20 6 2 -1.</_>
        <_>
          13 20 3 1 2.</_>
        <_>
          16 21 3 1 2.</_></rects>
      <tilted>0</tilted></_>
    <_>
      <rects>
        <_>
          14 1 3 3 -1.</_>
        <_>
          14 2 3 1 3.</_></rects>
      <tilted>0</tilted></_>
    <_>
      <rects>
        <_>
          14 2 2 2 -1.</_>
        <_>
          14 3 2 1 2.</_></rects>
      <tilted>0</tilted></_>
    <_>
      <rects>
        <_>
          14 10 5 4 -1.</_>
        <_>
          14 12 5 2 2.</_></rects>
      <tilted>0</tilted></_>
    <_>
      <rects>
        <_>
          14 20 3 4 -1.</_>
        <_>
          15 20 1 4 3.</_></rects>
      <tilted>0</tilted></_>
    <_>
      <rects>
        <_>
          14 22 6 2 -1.</_>
        <_>
          14 22 3 1 2.</_>
        <_>
          17 23 3 1 2.</_></rects>
      <tilted>0</tilted></_>
    <_>
      <rects>
        <_>
          14 22 8 2 -1.</_>
        <_>
          14 22 4 1 2.</_>
        <_>
          18 23 4 1 2.</_></rects>
      <tilted>0</tilted></_>
    <_>
      <rects>
        <_>
          15 1 6 6 -1.</_>
        <_>
          15 1 3 3 2.</_>
        <_>
          18 4 3 3 2.</_></rects>
      <tilted>0</tilted></_>
    <_>
      <rects>
        <_>
          15 21 2 2 -1.</_>
        <_>
          16 21 1 2 2.</_></rects>
      <tilted>0</tilted></_>
    <_>
      <rects>
        <_>
          16 0 2 2 -1.</_>
        <_>
          16 0 1 1 2.</_>
        <_>
          17 1 1 1 2.</_></rects>
      <tilted>0</tilted></_>
    <_>
      <rects>
        <_>
          16 1 8 2 -1.</_>
        <_>
          16 1 4 1 2.</_>
        <_>
          20 2 4 1 2.</_></rects>
      <tilted>0</tilted></_>
    <_>
      <rects>
        <_>
          16 15 6 5 -1.</_>
        <_>
          18 15 2 5 3.</_></rects>
      <tilted>0</tilted></_>
    <_>
      <rects>
        <_>
          16 16 3 8 -1.</_>
        <_>
          17 16 1 8 3.</_></rects>
      <tilted>0</tilted></_>
    <_>
      <rects>
        <_>
          16 19 8 4 -1.</_>
        <_>
          16 19 4 2 2.</_>
        <_>
          20 21 4 2 2.</_></rects>
      <tilted>0</tilted></_>
    <_>
      <rects>
        <_>
          16 22 3 1 -1.</_>
        <_>
          17 22 1 1 3.</_></rects>
      <tilted>0</tilted></_>
    <_>
      <rects>
        <_>
          17 0 4 4 -1.</_>
        <_>
          17 2 4 2 2.</_></rects>
      <tilted>0</tilted></_>
    <_>
      <rects>
        <_>
          17 2 6 10 -1.</_>
        <_>
          17 2 3 5 2.</_>
        <_>
          20 7 3 5 2.</_></rects>
      <tilted>0</tilted></_>
    <_>
      <rects>
        <_>
          17 7 3 3 -1.</_>
        <_>
          17 8 3 1 3.</_></rects>
      <tilted>0</tilted></_>
    <_>
      <rects>
        <_>
          17 9 3 3 -1.</_>
        <_>
          17 10 3 1 3.</_></rects>
      <tilted>0</tilted></_>
    <_>
      <rects>
        <_>
          17 9 7 3 -1.</_>
        <_>
          17 10 7 1 3.</_></rects>
      <tilted>0</tilted></_>
    <_>
      <rects>
        <_>
          18 3 2 2 -1.</_>
        <_>
          18 3 1 1 2.</_>
        <_>
          19 4 1 1 2.</_></rects>
      <tilted>0</tilted></_>
    <_>
      <rects>
        <_>
          18 8 1 3 -1.</_>
        <_>
          18 9 1 1 3.</_></rects>
      <tilted>0</tilted></_>
    <_>
      <rects>
        <_>
          18 9 2 3 -1.</_>
        <_>
          18 10 2 1 3.</_></rects>
      <tilted>0</tilted></_>
    <_>
      <rects>
        <_>
          18 10 2 3 -1.</_>
        <_>
          18 11 2 1 3.</_></rects>
      <tilted>0</tilted></_>
    <_>
      <rects>
        <_>
          19 3 1 3 -1.</_>
        <_>
          19 4 1 1 3.</_></rects>
      <tilted>0</tilted></_>
    <_>
      <rects>
        <_>
          19 4 2 2 -1.</_>
        <_>
          19 4 1 1 2.</_>
        <_>
          20 5 1 1 2.</_></rects>
      <tilted>0</tilted></_>
    <_>
      <rects>
        <_>
          19 8 4 1 -1.</_>
        <_>
          21 8 2 1 2.</_></rects>
      <tilted>0</tilted></_>
    <_>
      <rects>
        <_>
          19 9 3 3 -1.</_>
        <_>
          19 10 3 1 3.</_></rects>
      <tilted>0</tilted></_>
    <_>
      <rects>
        <_>
          19 15 5 3 -1.</_>
        <_>
          19 16 5 1 3.</_></rects>
      <tilted>0</tilted></_>
    <_>
      <rects>
        <_>
          19 16 2 2 -1.</_>
        <_>
          19 16 1 1 2.</_>
        <_>
          20 17 1 1 2.</_></rects>
      <tilted>0</tilted></_>
    <_>
      <rects>
        <_>
          19 16 5 3 -1.</_>
        <_>
          19 17 5 1 3.</_></rects>
      <tilted>0</tilted></_>
    <_>
      <rects>
        <_>
          19 18 4 1 -1.</_>
        <_>
          21 18 2 1 2.</_></rects>
      <tilted>0</tilted></_>
    <_>
      <rects>
        <_>
          19 19 2 2 -1.</_>
        <_>
          19 19 1 1 2.</_>
        <_>
          20 20 1 1 2.</_></rects>
      <tilted>0</tilted></_>
    <_>
      <rects>
        <_>
          19 21 1 2 -1.</_>
        <_>
          19 22 1 1 2.</_></rects>
      <tilted>0</tilted></_>
    <_>
      <rects>
        <_>
          20 0 4 2 -1.</_>
        <_>
          20 0 2 1 2.</_>
        <_>
          22 1 2 1 2.</_></rects>
      <tilted>0</tilted></_>
    <_>
      <rects>
        <_>
          20 4 1 2 -1.</_>
        <_>
          20 5 1 1 2.</_></rects>
      <tilted>0</tilted></_>
    <_>
      <rects>
        <_>
          20 4 2 2 -1.</_>
        <_>
          20 4 1 1 2.</_>
        <_>
          21 5 1 1 2.</_></rects>
      <tilted>0</tilted></_>
    <_>
      <rects>
        <_>
          20 5 2 2 -1.</_>
        <_>
          20 5 1 1 2.</_>
        <_>
          21 6 1 1 2.</_></rects>
      <tilted>0</tilted></_>
    <_>
      <rects>
        <_>
          20 12 4 1 -1.</_>
        <_>
          22 12 2 1 2.</_></rects>
      <tilted>0</tilted></_>
    <_>
      <rects>
        <_>
          20 14 2 6 -1.</_>
        <_>
          20 16 2 2 3.</_></rects>
      <tilted>0</tilted></_>
    <_>
      <rects>
        <_>
          20 14 4 10 -1.</_>
        <_>
          20 14 2 5 2.</_>
        <_>
          22 19 2 5 2.</_></rects>
      <tilted>0</tilted></_>
    <_>
      <rects>
        <_>
          20 15 4 3 -1.</_>
        <_>
          22 15 2 3 2.</_></rects>
      <tilted>0</tilted></_>
    <_>
      <rects>
        <_>
          20 15 4 8 -1.</_>
        <_>
          20 15 2 4 2.</_>
        <_>
          22 19 2 4 2.</_></rects>
      <tilted>0</tilted></_>
    <_>
      <rects>
        <_>
          20 15 3 9 -1.</_>
        <_>
          20 18 3 3 3.</_></rects>
      <tilted>0</tilted></_>
    <_>
      <rects>
        <_>
          20 16 2 4 -1.</_>
        <_>
          20 16 1 2 2.</_>
        <_>
          21 18 1 2 2.</_></rects>
      <tilted>0</tilted></_>
    <_>
      <rects>
        <_>
          20 17 2 2 -1.</_>
        <_>
          20 18 2 1 2.</_></rects>
      <tilted>0</tilted></_>
    <_>
      <rects>
        <_>
          20 18 2 2 -1.</_>
        <_>
          20 18 1 1 2.</_>
        <_>
          21 19 1 1 2.</_></rects>
      <tilted>0</tilted></_>
    <_>
      <rects>
        <_>
          21 6 2 2 -1.</_>
        <_>
          21 6 1 1 2.</_>
        <_>
          22 7 1 1 2.</_></rects>
      <tilted>0</tilted></_>
    <_>
      <rects>
        <_>
          21 6 3 11 -1.</_>
        <_>
          22 6 1 11 3.</_></rects>
      <tilted>0</tilted></_>
    <_>
      <rects>
        <_>
          21 6 2 12 -1.</_>
        <_>
          22 6 1 12 2.</_></rects>
      <tilted>0</tilted></_>
    <_>
      <rects>
        <_>
          21 16 3 1 -1.</_>
        <_>
          22 16 1 1 3.</_></rects>
      <tilted>0</tilted></_>
    <_>
      <rects>
        <_>
          21 16 1 4 -1.</_>
        <_>
          21 18 1 2 2.</_></rects>
      <tilted>0</tilted></_>
    <_>
      <rects>
        <_>
          21 16 3 3 -1.</_>
        <_>
          22 16 1 3 3.</_></rects>
      <tilted>0</tilted></_>
    <_>
      <rects>
        <_>
          21 16 2 2 -1.</_>
        <_>
          21 17 2 1 2.</_></rects>
      <tilted>0</tilted></_>
    <_>
      <rects>
        <_>
          22 0 2 16 -1.</_>
        <_>
          22 0 1 8 2.</_>
        <_>
          23 8 1 8 2.</_></rects>
      <tilted>0</tilted></_>
    <_>
      <rects>
        <_>
          22 5 1 2 -1.</_>
        <_>
          22 6 1 1 2.</_></rects>
      <tilted>0</tilted></_>
    <_>
      <rects>
        <_>
          22 7 2 11 -1.</_>
        <_>
          23 7 1 11 2.</_></rects>
      <tilted>0</tilted></_>
    <_>
      <rects>
        <_>
          22 10 2 6 -1.</_>
        <_>
          23 10 1 6 2.</_></rects>
      <tilted>0</tilted></_>
    <_>
      <rects>
        <_>
          22 11 2 10 -1.</_>
        <_>
          22 11 1 5 2.</_>
        <_>
          23 16 1 5 2.</_></rects>
      <tilted>0</tilted></_>
    <_>
      <rects>
        <_>
          22 12 2 1 -1.</_>
        <_>
          23 12 1 1 2.</_></rects>
      <tilted>0</tilted></_>
    <_>
      <rects>
        <_>
          22 12 2 4 -1.</_>
        <_>
          23 12 1 4 2.</_></rects>
      <tilted>0</tilted></_>
    <_>
      <rects>
        <_>
          22 14 1 2 -1.</_>
        <_>
          22 15 1 1 2.</_></rects>
      <tilted>0</tilted></_>
    <_>
      <rects>
        <_>
          22 16 2 2 -1.</_>
        <_>
          22 16 1 1 2.</_>
        <_>
          23 17 1 1 2.</_></rects>
      <tilted>0</tilted></_></features></cascade>
</opencv_storage>
